/* Auto-generated by utensor cli */
#include <stdint.h>

const int8_t data_StatefulPartitionedCall_sequential_conv2d_Conv2D_ReadVariableOp_0 [ 432 ] = {  20,  4,  107,  -37,  30,  -65,  -19,  49,  -20,  -104,  112,  -127,  24,  38,  -98,  -28,  -51,  107,  30,  -122,  -72,  103,  28,  66,  -103,  -85,  -33,  110,  24,  -34,  -36,  -76,  -2,  36,  -42,  30,  73,  -81,  -119,  -65,  3,  120,  65,  -73,  109,  16,  93,  43,  127,  -17,  51,  70,  -4,  -17,  63,  -109,  -90,  15,  -84,  -124,  111,  17,  -44,  86,  -17,  1,  43,  -65,  50,  31,  -46,  121,  115,  -127,  -90,  -20,  13,  -38,  -96,  -72,  47,  -100,  -115,  -83,  37,  -90,  62,  57,  -30,  -43,  29,  28,  -48,  106,  -13,  -63,  84,  25,  -7,  81,  71,  -95,  48,  40,  -81,  -127,  -105,  11,  -38,  33,  -71,  127,  -48,  118,  -90,  33,  86,  -53,  75,  -127,  -111,  -100,  116,  -89,  -41,  65,  101,  80,  112,  -108,  0,  -24,  66,  67,  127,  115,  -98,  -51,  -124,  114,  15,  -116,  -85,  -124,  -5,  -81,  35,  -99,  101,  -24,  31,  -46,  -25,  -67,  -87,  59,  74,  127,  91,  34,  67,  72,  -66,  -73,  127,  126,  77,  -106,  115,  18,  8,  -46,  111,  15,  100,  8,  -67,  -85,  64,  -83,  -106,  64,  3,  -86,  -110,  -28,  -120,  -88,  10,  -20,  1,  -72,  74,  30,  46,  43,  41,  2,  36,  15,  -24,  -122,  -7,  78,  -33,  69,  -100,  -18,  -119,  127,  -85,  -118,  -66,  -54,  1,  7,  118,  -92,  -102,  63,  -25,  -120,  86,  -112,  -63,  -43,  55,  -41,  -84,  127,  -14,  120,  13,  -36,  12,  -19,  62,  -37,  -24,  -25,  33,  118,  122,  -59,  -11,  127,  -71,  -70,  -94,  -34,  9,  1,  -98,  78,  42,  -51,  94,  -63,  -34,  -104,  -101,  -63,  82,  -105,  -81,  -26,  -65,  44,  52,  -107,  -118,  43,  -41,  30,  -42,  4,  95,  -66,  -79,  45,  11,  7,  -127,  77,  -86,  -117,  115,  -2,  31,  -41,  76,  36,  -56,  52,  -121,  -43,  -90,  -58,  118,  -88,  75,  -54,  113,  59,  77,  49,  -112,  -54,  -116,  -124,  58,  91,  -45,  35,  -83,  44,  -29,  91,  -39,  -97,  18,  -122,  -127,  1,  -26,  103,  96,  -114,  -51,  -7,  -57,  -75,  93,  -126,  -6,  -116,  28,  -127,  10,  -50,  -52,  13,  -48,  -127,  46,  -65,  43,  -94,  39,  61,  28,  1,  101,  8,  -114,  121,  -79,  122,  43,  68,  114,  22,  -55,  107,  53,  -44,  56,  11,  127,  4,  -55,  -56,  -7,  -52,  14,  -5,  -10,  75,  -10,  -41,  -27,  13,  -11,  22,  -16,  -34,  17,  83,  -1,  31,  108,  85,  -113,  -53,  68,  117,  33,  -117,  -40,  39,  1,  -90,  87,  91,  127,  87,  27,  -91,  105,  -13,  -24,  -37,  -27,  21,  13,  127,  68,  -40,  113,  96,  118,  79,  63,  -42,  -42,  -56,  65,  70,  -7,  -24,  70,  -54,  };

const int32_t data_StatefulPartitionedCall_sequential_conv2d_Conv2D_bias_0 [ 16 ] = {  -2286,  384,  -3181,  -1645,  -2036,  -1039,  -1993,  -451,  -1642,  -1042,  -1361,  -2144,  255,  2436,  1118,  2042,  };

const int8_t data_StatefulPartitionedCall_sequential_conv2d_1_Conv2D_ReadVariableOp_0 [ 2304 ] = {  -40,  -70,  -49,  105,  37,  79,  -59,  -101,  92,  33,  -110,  62,  -108,  -9,  -61,  69,  103,  93,  -43,  -86,  36,  -38,  -86,  -70,  64,  -45,  -51,  -101,  -117,  95,  -127,  -45,  52,  24,  -116,  107,  79,  -119,  1,  104,  98,  104,  91,  6,  114,  -62,  81,  17,  5,  -125,  -110,  84,  -48,  20,  -39,  60,  -74,  86,  -29,  -67,  -36,  45,  97,  -116,  101,  46,  86,  -48,  -92,  81,  7,  49,  53,  -71,  -33,  107,  -108,  -57,  -98,  -4,  17,  114,  121,  57,  -110,  38,  -15,  -47,  41,  -93,  18,  -9,  113,  70,  114,  -20,  51,  44,  8,  -19,  36,  -54,  91,  -88,  89,  -47,  6,  -97,  -15,  -126,  -6,  -97,  -16,  99,  -4,  -17,  39,  54,  91,  -109,  -10,  29,  -61,  -52,  -115,  106,  -48,  -46,  21,  67,  52,  -110,  8,  43,  39,  -64,  -118,  85,  110,  -53,  -45,  -69,  -44,  -79,  -124,  41,  69,  -124,  64,  81,  -65,  -14,  -10,  74,  113,  38,  78,  -114,  105,  -75,  69,  -119,  77,  -41,  58,  -77,  118,  -45,  -45,  53,  -123,  -41,  -106,  65,  38,  -27,  23,  -122,  -78,  -47,  -125,  -105,  108,  -104,  -39,  -37,  78,  -108,  75,  24,  47,  88,  -46,  30,  -92,  92,  76,  -117,  62,  115,  91,  -105,  -103,  15,  -110,  -6,  -94,  6,  121,  -58,  -29,  -32,  83,  5,  48,  -103,  100,  118,  13,  5,  -34,  -106,  77,  -98,  23,  13,  -2,  0,  71,  56,  102,  60,  -127,  29,  -52,  -82,  77,  -1,  -42,  80,  -116,  -76,  69,  45,  -57,  68,  33,  -73,  -7,  -20,  -54,  -52,  -83,  78,  -12,  106,  -68,  -103,  -102,  112,  -3,  108,  25,  -44,  69,  -57,  104,  42,  105,  -88,  -16,  98,  106,  11,  -25,  -114,  15,  89,  74,  -1,  96,  -48,  1,  -97,  1,  -1,  -96,  109,  -93,  -41,  74,  42,  -107,  -19,  -125,  5,  -27,  62,  16,  92,  70,  -17,  -59,  -16,  -96,  -96,  105,  -71,  -23,  -22,  96,  84,  23,  -85,  -10,  81,  -15,  90,  85,  37,  -102,  74,  -111,  34,  69,  69,  40,  58,  33,  -74,  21,  51,  -64,  -41,  90,  -33,  104,  -105,  -11,  88,  87,  119,  84,  53,  -87,  -44,  -31,  -104,  -15,  11,  106,  -70,  39,  -24,  31,  -34,  -40,  -77,  61,  -86,  80,  45,  29,  59,  -40,  24,  -17,  -35,  110,  -38,  -62,  -33,  36,  95,  84,  -33,  81,  -28,  -65,  -57,  -95,  -22,  89,  -42,  -109,  -48,  98,  82,  7,  61,  1,  32,  16,  19,  -17,  60,  -4,  -127,  -14,  -51,  62,  25,  16,  30,  82,  -22,  55,  -92,  52,  22,  -106,  -61,  25,  61,  66,  -116,  101,  -91,  -4,  -108,  56,  42,  116,  18,  -99,  69,  73,  27,  -57,  -42,  91,  -119,  122,  49,  113,  82,  40,  86,  34,  83,  -44,  -42,  57,  -64,  -48,  -73,  -122,  -4,  -75,  55,  101,  -61,  -87,  36,  59,  -18,  -32,  59,  -98,  89,  -97,  105,  -76,  -123,  -32,  64,  -87,  -81,  -74,  -14,  75,  -75,  40,  5,  -69,  79,  -28,  -93,  -126,  94,  70,  -96,  -44,  -10,  -49,  109,  73,  -96,  -63,  113,  -68,  116,  -53,  50,  102,  78,  43,  -8,  -7,  -17,  -127,  -60,  81,  117,  10,  -93,  98,  -44,  14,  -45,  -91,  58,  64,  -25,  -6,  -95,  -85,  -127,  -34,  -79,  -68,  59,  78,  -44,  55,  96,  8,  -53,  33,  -32,  63,  -31,  -85,  -113,  30,  -68,  -99,  108,  62,  68,  -19,  -60,  -124,  -57,  114,  7,  66,  56,  83,  38,  -55,  79,  -78,  71,  -30,  62,  14,  32,  16,  86,  44,  -35,  92,  101,  79,  81,  65,  67,  87,  42,  74,  57,  -116,  75,  -39,  101,  77,  71,  39,  39,  -79,  35,  14,  -96,  27,  65,  48,  -3,  -77,  -19,  124,  41,  -69,  57,  -15,  98,  -90,  -7,  -10,  65,  -6,  21,  -57,  -74,  20,  -31,  101,  127,  -72,  -92,  28,  122,  18,  -5,  -75,  -80,  -63,  -49,  26,  -104,  -10,  59,  -74,  -36,  22,  -32,  -7,  31,  59,  -59,  2,  40,  71,  -20,  42,  86,  -113,  91,  38,  55,  -44,  -13,  -82,  75,  65,  29,  -69,  32,  85,  49,  -104,  -25,  -72,  -75,  44,  -72,  114,  95,  -50,  -75,  108,  59,  112,  11,  -10,  -93,  113,  56,  35,  -61,  47,  -7,  -70,  94,  108,  -110,  -69,  32,  -28,  116,  38,  -13,  -20,  28,  -83,  -56,  121,  -7,  -41,  104,  -80,  10,  -32,  -47,  27,  -117,  64,  -29,  34,  38,  -70,  -81,  -44,  119,  -84,  -24,  43,  46,  -105,  -32,  -44,  -26,  80,  65,  -64,  6,  58,  52,  30,  -101,  88,  35,  48,  -97,  -35,  -29,  -95,  -97,  -55,  42,  45,  36,  -38,  84,  28,  -17,  48,  -61,  -62,  43,  51,  -15,  44,  34,  -57,  -90,  26,  -121,  -14,  103,  31,  -49,  53,  96,  -58,  103,  -55,  -100,  -91,  -127,  19,  57,  -23,  36,  28,  18,  -84,  -74,  -111,  15,  -76,  10,  99,  55,  -67,  111,  9,  82,  85,  22,  58,  -87,  34,  -38,  -63,  -108,  77,  78,  76,  -100,  4,  97,  4,  72,  49,  9,  -92,  -103,  18,  3,  73,  93,  -104,  100,  113,  2,  -33,  98,  -87,  -10,  93,  -33,  -32,  33,  -72,  -118,  -91,  80,  -103,  -117,  -60,  -12,  7,  -35,  -122,  -28,  8,  78,  -54,  -98,  101,  109,  19,  32,  63,  -47,  4,  -60,  -56,  -53,  -44,  -107,  94,  71,  -70,  10,  -80,  86,  -13,  -88,  79,  -102,  105,  54,  -25,  11,  -101,  41,  71,  32,  92,  85,  -20,  25,  -22,  -88,  -21,  -56,  -120,  11,  -32,  65,  -96,  -93,  -10,  -51,  -54,  -56,  79,  -21,  40,  23,  52,  -95,  37,  -1,  85,  -91,  6,  -75,  77,  -74,  56,  49,  -70,  43,  -56,  52,  75,  -67,  -121,  -1,  47,  80,  110,  -8,  -93,  41,  -73,  56,  -72,  94,  91,  -74,  17,  42,  -111,  16,  9,  23,  72,  -53,  -115,  -19,  115,  -28,  32,  -52,  76,  -20,  77,  -4,  -50,  75,  24,  -66,  -84,  -30,  98,  -91,  -14,  -23,  -10,  -59,  59,  109,  -47,  -102,  83,  -5,  -6,  23,  -9,  36,  -103,  -123,  -69,  60,  39,  -80,  9,  -97,  42,  41,  -118,  96,  -51,  7,  -124,  87,  -88,  51,  -92,  46,  -127,  54,  102,  -60,  60,  103,  7,  20,  -59,  66,  -101,  52,  94,  -127,  45,  -111,  -73,  -101,  26,  -48,  92,  54,  -25,  -30,  -4,  12,  -67,  -57,  -8,  63,  -23,  8,  50,  -119,  -98,  21,  36,  -52,  -21,  114,  124,  16,  -45,  86,  -37,  -54,  83,  121,  5,  96,  -55,  -14,  102,  14,  -29,  111,  -68,  75,  13,  -127,  61,  83,  96,  -59,  -16,  81,  99,  54,  63,  -35,  105,  16,  -46,  1,  59,  -40,  -51,  88,  -26,  -82,  26,  -63,  57,  26,  20,  11,  35,  -39,  -40,  52,  14,  -9,  -6,  53,  106,  115,  74,  -87,  -8,  24,  -85,  53,  17,  -3,  90,  60,  -42,  3,  5,  50,  -77,  -49,  -47,  24,  -63,  23,  -73,  26,  3,  -18,  28,  -43,  -35,  2,  -37,  106,  -54,  115,  118,  77,  -59,  -38,  -50,  -67,  4,  51,  -22,  59,  -15,  96,  -92,  62,  -55,  124,  100,  -27,  -24,  -90,  -87,  -29,  -35,  -44,  -43,  -87,  -63,  -12,  -17,  21,  57,  65,  -37,  83,  21,  -42,  56,  14,  -12,  -69,  110,  1,  103,  -67,  -99,  50,  37,  69,  -37,  -18,  115,  -22,  -59,  -28,  98,  34,  32,  -118,  39,  -59,  23,  -83,  -66,  -11,  -54,  -115,  49,  59,  102,  -11,  100,  55,  -82,  71,  -48,  -122,  -114,  119,  -44,  107,  -62,  -41,  107,  3,  -8,  -52,  53,  -97,  -109,  -127,  8,  -27,  80,  14,  16,  29,  13,  -118,  -22,  83,  -5,  -21,  0,  93,  -43,  31,  -69,  33,  16,  63,  7,  97,  106,  17,  70,  83,  96,  -34,  -65,  -125,  -123,  -41,  -48,  -71,  -27,  -41,  -96,  -79,  -2,  -48,  7,  -118,  -62,  105,  48,  -109,  -85,  35,  -28,  46,  -94,  45,  -104,  113,  10,  53,  -16,  30,  100,  55,  -69,  23,  27,  3,  105,  -61,  -84,  -58,  31,  -72,  25,  37,  7,  -19,  72,  -125,  26,  -101,  2,  -109,  -45,  107,  123,  29,  68,  -56,  115,  74,  -46,  70,  -49,  79,  70,  -9,  47,  40,  -84,  35,  -19,  -29,  -80,  -61,  28,  -11,  26,  -26,  115,  42,  33,  47,  -13,  94,  -53,  28,  -21,  -25,  46,  126,  -20,  -33,  9,  -60,  -32,  58,  -27,  -55,  -58,  74,  -61,  48,  35,  -61,  -109,  108,  95,  -10,  -39,  45,  -79,  -34,  -20,  30,  -78,  -33,  -84,  -19,  -64,  -46,  -32,  127,  47,  83,  51,  90,  112,  52,  -52,  -96,  -22,  59,  -90,  -26,  -87,  -22,  -65,  -78,  58,  32,  102,  36,  123,  -27,  -25,  114,  -78,  39,  104,  34,  -93,  -13,  -67,  -22,  -15,  91,  -42,  24,  45,  -58,  60,  -32,  73,  -10,  -9,  -52,  -47,  -22,  -32,  55,  42,  88,  -40,  64,  -67,  2,  -53,  -60,  31,  30,  110,  -57,  1,  -15,  -85,  -73,  -20,  54,  -58,  -76,  -46,  -89,  8,  -97,  88,  4,  -87,  42,  -25,  -75,  -44,  54,  17,  81,  -22,  -43,  107,  72,  56,  100,  38,  123,  -45,  66,  62,  -31,  5,  88,  49,  108,  65,  -1,  111,  112,  -40,  -115,  -47,  -21,  -106,  64,  97,  -80,  -77,  -62,  5,  -61,  6,  -3,  -92,  81,  -3,  -96,  -78,  -113,  -84,  98,  39,  14,  25,  106,  -58,  26,  80,  66,  37,  104,  -123,  -92,  96,  69,  2,  9,  -50,  104,  22,  36,  -90,  -41,  -126,  95,  8,  49,  -51,  51,  77,  -1,  -114,  -123,  -13,  27,  93,  -53,  -104,  55,  -102,  -44,  -31,  62,  2,  33,  -43,  -58,  -127,  -112,  38,  52,  -1,  -106,  -32,  -67,  -85,  -100,  62,  -30,  67,  -111,  -94,  -58,  0,  -27,  -50,  84,  -97,  61,  -107,  51,  67,  -104,  33,  -72,  74,  49,  -109,  94,  -20,  -6,  -92,  -51,  72,  7,  76,  -21,  -74,  -97,  -8,  65,  -16,  -76,  -34,  107,  -56,  -30,  -69,  -64,  -91,  -121,  -45,  -18,  74,  20,  119,  63,  88,  -94,  31,  67,  74,  96,  -25,  119,  73,  -71,  -1,  6,  41,  115,  93,  -4,  -3,  -2,  -9,  48,  23,  -36,  99,  -34,  69,  -61,  -103,  -71,  112,  121,  89,  -62,  -68,  -13,  -91,  20,  52,  110,  -54,  -88,  -50,  -101,  -67,  -73,  -28,  109,  23,  -45,  27,  47,  -49,  -59,  69,  11,  -32,  12,  90,  17,  -99,  -115,  3,  -18,  34,  85,  80,  15,  93,  -58,  99,  41,  -59,  -107,  88,  -10,  -110,  -85,  -82,  -110,  1,  -91,  -54,  -15,  -33,  -49,  -50,  7,  8,  127,  -25,  96,  23,  -73,  34,  32,  106,  105,  -82,  -109,  65,  11,  -61,  21,  86,  -21,  -60,  6,  11,  30,  -93,  -25,  -68,  -81,  0,  104,  25,  -96,  61,  -103,  -87,  -103,  53,  8,  -111,  67,  102,  -19,  -119,  -81,  43,  82,  -81,  -112,  59,  -101,  -57,  -122,  -85,  55,  -49,  -98,  -105,  -32,  -76,  -126,  -55,  38,  -118,  90,  -11,  -109,  87,  17,  -51,  36,  62,  -114,  75,  -87,  28,  41,  -65,  22,  -51,  19,  62,  73,  17,  -5,  -61,  97,  18,  14,  86,  76,  67,  93,  -50,  -91,  -99,  -110,  46,  -34,  -84,  -57,  -44,  -22,  -64,  89,  91,  5,  103,  -53,  50,  65,  90,  114,  8,  -54,  43,  -96,  -42,  -84,  -84,  19,  49,  -85,  -82,  102,  -43,  90,  -88,  79,  25,  -7,  25,  -98,  17,  88,  72,  -1,  122,  43,  74,  -16,  -29,  71,  47,  -76,  99,  -76,  -70,  -32,  -16,  66,  -15,  82,  80,  -51,  -40,  -67,  -40,  -19,  50,  -26,  69,  -71,  -66,  71,  118,  -57,  -66,  50,  94,  -10,  -57,  -14,  -52,  -25,  2,  -96,  -33,  72,  21,  -5,  -20,  20,  89,  54,  34,  -49,  -117,  -13,  -119,  77,  -93,  34,  -127,  -60,  95,  -56,  38,  -3,  -12,  61,  18,  -68,  82,  75,  -109,  -26,  56,  -48,  102,  8,  -92,  29,  -95,  73,  9,  -104,  -29,  -56,  -2,  41,  72,  -22,  9,  106,  101,  49,  -74,  -66,  88,  14,  -68,  5,  50,  -45,  -17,  -17,  -4,  97,  -24,  97,  -106,  -75,  87,  -83,  53,  -67,  -55,  -47,  -13,  66,  127,  -66,  -118,  -9,  -3,  22,  -61,  45,  10,  -11,  7,  73,  -20,  58,  24,  91,  -66,  -29,  -119,  31,  -106,  72,  -63,  94,  -60,  98,  110,  -17,  -36,  -21,  -75,  90,  -90,  71,  -23,  -51,  46,  -22,  -111,  -12,  -87,  -57,  49,  -49,  -19,  -61,  126,  -88,  -4,  -25,  -64,  14,  26,  101,  -20,  -16,  -48,  29,  -34,  106,  -16,  49,  -75,  31,  -6,  -79,  1,  79,  11,  -68,  2,  85,  -12,  -60,  92,  -68,  108,  -90,  77,  -86,  -19,  -2,  -57,  102,  96,  -77,  -123,  57,  -35,  60,  -55,  -71,  59,  -76,  43,  -72,  29,  -85,  -43,  -86,  24,  -12,  102,  1,  -88,  -86,  -112,  -33,  89,  -17,  39,  -31,  -27,  -94,  -53,  -30,  9,  95,  -17,  -93,  15,  -9,  -7,  -5,  -76,  -19,  -109,  -4,  107,  -14,  -113,  -47,  100,  -100,  -64,  82,  15,  4,  23,  -84,  55,  -47,  30,  95,  -38,  78,  98,  -58,  -99,  125,  -42,  89,  28,  21,  7,  84,  31,  64,  -6,  -14,  80,  73,  52,  86,  -50,  75,  89,  -12,  5,  -75,  12,  -107,  82,  -110,  -11,  -20,  -97,  18,  14,  -31,  -115,  -86,  -60,  -5,  -56,  -36,  5,  -10,  -78,  -109,  -51,  52,  -22,  -33,  -44,  -84,  -36,  90,  -98,  107,  -46,  45,  -110,  -66,  -41,  71,  -28,  86,  89,  21,  93,  -74,  -86,  -7,  -113,  -92,  0,  90,  -23,  -126,  45,  -94,  -27,  -71,  -25,  -21,  -21,  -54,  -67,  98,  16,  12,  -57,  60,  -57,  -127,  30,  -40,  82,  -93,  76,  -98,  39,  84,  53,  24,  -16,  84,  42,  42,  -67,  73,  20,  17,  -85,  -75,  98,  -60,  -107,  -12,  -3,  69,  -2,  -71,  31,  88,  111,  54,  56,  61,  97,  -104,  -7,  -5,  53,  8,  111,  21,  35,  -97,  2,  5,  113,  -127,  -108,  94,  114,  -35,  14,  104,  -8,  2,  51,  78,  -69,  -122,  -109,  -38,  -105,  -93,  -94,  -62,  78,  87,  27,  89,  -51,  30,  -30,  71,  -56,  -44,  1,  -111,  120,  -89,  -118,  -74,  -30,  -125,  -15,  73,  -13,  -73,  63,  -101,  61,  -99,  6,  66,  80,  34,  42,  85,  -112,  89,  69,  -71,  -90,  61,  20,  -103,  -26,  -112,  90,  -94,  48,  82,  42,  -124,  -89,  89,  -88,  -28,  -12,  -74,  -77,  -6,  -12,  -52,  34,  -46,  108,  15,  49,  -114,  29,  -45,  21,  -61,  -48,  4,  -36,  -13,  16,  -53,  -102,  21,  50,  103,  72,  53,  -118,  -113,  35,  36,  108,  110,  -47,  30,  -95,  83,  90,  40,  -106,  21,  -79,  65,  };

const int32_t data_StatefulPartitionedCall_sequential_conv2d_1_Conv2D_bias_0 [ 16 ] = {  -2104,  -1803,  -2376,  -4112,  1379,  -2170,  -1826,  3967,  -941,  3450,  -2736,  -363,  -860,  -1706,  -2429,  -2279,  };

const int8_t data_StatefulPartitionedCall_sequential_dense_MatMul_ReadVariableOp_transpose_0 [ 5760 ] = {  73,  -97,  85,  -104,  34,  2,  45,  -17,  42,  -19,  64,  90,  82,  -8,  34,  -45,  -62,  -44,  -33,  -87,  -109,  -16,  85,  68,  5,  -21,  75,  8,  46,  -15,  58,  68,  27,  71,  -56,  45,  -63,  101,  60,  2,  -35,  8,  78,  -85,  -53,  -24,  59,  93,  68,  9,  -90,  -43,  -15,  -50,  34,  19,  -91,  -14,  11,  -77,  -74,  100,  -23,  -100,  16,  -47,  -47,  -60,  -97,  69,  6,  8,  -4,  -31,  -90,  20,  -50,  15,  13,  -37,  3,  -58,  43,  13,  -42,  119,  112,  -42,  51,  86,  35,  -35,  63,  -105,  -74,  -51,  -28,  -12,  -99,  41,  -89,  45,  -82,  -87,  2,  -43,  65,  -109,  -75,  -16,  27,  -80,  9,  -78,  53,  -18,  -18,  41,  79,  -68,  -76,  74,  106,  -29,  109,  83,  -13,  -65,  -50,  -30,  -17,  -27,  12,  -8,  6,  92,  -56,  62,  -9,  80,  26,  21,  -49,  -58,  -34,  15,  23,  -81,  -70,  78,  -20,  41,  -88,  11,  -49,  64,  -87,  25,  48,  -78,  21,  -11,  92,  68,  -61,  27,  18,  66,  -59,  -43,  -52,  62,  -50,  -50,  100,  -6,  -72,  78,  40,  72,  50,  -95,  -66,  -84,  -34,  66,  -17,  -49,  81,  -80,  -87,  -76,  -30,  -104,  4,  51,  -70,  11,  -14,  94,  -104,  61,  -81,  43,  -81,  107,  4,  -28,  6,  38,  -55,  1,  102,  -67,  73,  24,  -74,  -68,  40,  83,  34,  16,  86,  13,  -42,  -55,  45,  -10,  -55,  98,  71,  -23,  41,  -84,  95,  45,  90,  16,  -38,  11,  -17,  -38,  -28,  36,  20,  47,  -23,  -68,  87,  16,  -2,  21,  114,  -65,  101,  -31,  68,  -34,  -100,  -22,  5,  18,  63,  -80,  66,  81,  -60,  49,  91,  -34,  30,  -29,  -70,  64,  -10,  28,  -66,  -91,  -34,  -37,  84,  -107,  101,  63,  -60,  31,  -80,  43,  29,  53,  37,  -25,  -54,  -5,  -13,  37,  96,  100,  85,  -62,  -11,  91,  9,  -35,  -64,  83,  -2,  -51,  48,  -17,  76,  -62,  35,  -59,  83,  -76,  -104,  -29,  35,  69,  76,  -37,  1,  14,  15,  -18,  -85,  110,  -7,  9,  -24,  47,  67,  10,  3,  -64,  64,  15,  13,  63,  63,  38,  71,  50,  -57,  -60,  67,  -60,  -42,  97,  92,  -14,  -65,  -26,  21,  43,  3,  -34,  55,  -1,  -29,  12,  -63,  30,  76,  -9,  2,  71,  33,  12,  -45,  -93,  86,  34,  -16,  96,  -72,  81,  50,  -59,  -90,  -33,  -74,  -32,  38,  -9,  -89,  -27,  57,  -58,  83,  -32,  41,  67,  -17,  -54,  -43,  38,  -83,  91,  -45,  -74,  -28,  -5,  -57,  51,  -8,  50,  -57,  -43,  23,  78,  -51,  -17,  30,  -33,  -80,  85,  50,  -54,  74,  13,  -80,  -98,  71,  74,  -78,  -30,  40,  -6,  -43,  -9,  44,  3,  54,  -46,  83,  -59,  -30,  -78,  -41,  -84,  44,  44,  28,  31,  -43,  73,  -28,  3,  17,  -94,  -92,  21,  -58,  -19,  -12,  -56,  99,  39,  -21,  -89,  -39,  76,  47,  25,  47,  -30,  -33,  24,  72,  -113,  -87,  38,  -65,  -91,  17,  5,  83,  1,  80,  86,  7,  -36,  -53,  30,  -92,  106,  4,  -20,  -8,  -54,  2,  10,  26,  94,  -108,  -39,  -95,  -80,  -42,  3,  25,  -50,  20,  21,  -45,  76,  -103,  43,  -8,  -84,  33,  20,  -1,  82,  -31,  -12,  -20,  -82,  -59,  -76,  -88,  35,  11,  -50,  -41,  -9,  25,  44,  2,  0,  55,  80,  62,  31,  21,  114,  -4,  78,  -34,  99,  81,  -69,  -24,  -44,  32,  -48,  6,  96,  -22,  73,  52,  58,  9,  -65,  -94,  -34,  -10,  98,  50,  -39,  34,  4,  108,  -33,  20,  12,  -21,  -5,  60,  -52,  -64,  -23,  -75,  89,  -76,  92,  -106,  6,  39,  -36,  -88,  85,  -80,  91,  -28,  24,  -86,  85,  -16,  79,  19,  -48,  93,  0,  11,  88,  -44,  -36,  78,  -109,  -58,  31,  43,  26,  8,  -82,  -21,  -15,  -72,  -5,  80,  -22,  95,  -35,  -80,  48,  -63,  -70,  -54,  95,  7,  -11,  -75,  -3,  79,  -9,  -71,  37,  -39,  44,  46,  -52,  69,  31,  19,  -52,  -99,  -16,  -63,  25,  -13,  -75,  -12,  45,  -107,  -83,  -16,  -48,  92,  -58,  91,  49,  10,  -19,  84,  -80,  -40,  -49,  -95,  -80,  95,  -102,  58,  -53,  -103,  -9,  -74,  -55,  51,  -51,  -2,  -46,  40,  24,  56,  -49,  -51,  -74,  -21,  -49,  -12,  -25,  17,  0,  -88,  -54,  -40,  55,  78,  83,  -74,  -78,  -58,  83,  25,  -9,  -85,  30,  30,  -36,  48,  50,  56,  81,  -59,  41,  9,  65,  -62,  -52,  104,  -46,  -63,  52,  -66,  30,  -59,  90,  -53,  34,  -33,  -51,  105,  32,  3,  -32,  38,  -68,  -105,  -56,  -31,  75,  88,  -44,  71,  -4,  -7,  5,  -31,  -64,  84,  -1,  -93,  84,  -13,  37,  -5,  -84,  68,  6,  -50,  -12,  7,  101,  -88,  38,  83,  -88,  -4,  35,  76,  -28,  0,  0,  -77,  108,  -80,  61,  78,  -82,  23,  -6,  10,  -100,  2,  44,  -53,  26,  95,  1,  -72,  0,  -86,  60,  -5,  95,  15,  -84,  85,  -52,  0,  -82,  64,  -1,  58,  -98,  -73,  38,  -91,  22,  -4,  77,  108,  74,  84,  42,  -14,  -31,  -51,  -67,  71,  47,  -74,  31,  34,  5,  -67,  98,  -96,  -23,  -30,  22,  -12,  -76,  -52,  -79,  64,  50,  -54,  -87,  -87,  -16,  21,  -87,  -45,  31,  22,  -8,  -24,  33,  74,  58,  0,  50,  -98,  62,  -70,  -18,  -18,  -20,  -60,  -91,  98,  55,  83,  68,  52,  36,  99,  -92,  85,  53,  -89,  85,  11,  13,  -91,  -46,  -53,  57,  -64,  14,  32,  65,  -23,  56,  -14,  83,  -103,  -40,  57,  51,  38,  98,  35,  -45,  23,  -37,  -72,  13,  87,  8,  66,  -78,  -33,  -27,  -52,  84,  -29,  88,  0,  104,  16,  87,  -6,  90,  11,  76,  105,  73,  28,  14,  14,  16,  78,  -70,  75,  102,  46,  -7,  -1,  -14,  -82,  54,  -57,  -66,  -100,  21,  89,  55,  87,  28,  5,  62,  88,  29,  -22,  -68,  27,  -45,  -20,  6,  37,  -76,  23,  -76,  89,  -100,  -28,  -81,  9,  -25,  -60,  95,  0,  -56,  -82,  -47,  -106,  -66,  -10,  30,  101,  -54,  28,  -91,  -82,  -84,  -40,  -32,  52,  83,  52,  -44,  60,  96,  -100,  8,  -73,  -85,  29,  -40,  8,  17,  43,  -44,  -92,  -11,  19,  -14,  -40,  -50,  -91,  26,  -39,  28,  -31,  -47,  -93,  -8,  84,  -36,  8,  33,  -59,  54,  -107,  -9,  89,  -61,  23,  -68,  2,  22,  -18,  93,  -51,  87,  56,  39,  5,  -44,  -112,  83,  -86,  -19,  -8,  82,  1,  -86,  5,  37,  87,  -6,  -31,  54,  -7,  79,  -7,  -54,  36,  10,  65,  87,  -74,  78,  93,  -17,  -78,  -18,  -43,  -13,  7,  12,  -27,  -41,  20,  43,  -33,  73,  98,  25,  -23,  -68,  -79,  -107,  90,  3,  -22,  88,  95,  94,  -57,  -29,  61,  100,  -64,  -45,  -12,  -24,  72,  3,  52,  -59,  14,  -61,  -45,  -34,  22,  -14,  -2,  -92,  -22,  -36,  -47,  -60,  -62,  -16,  -45,  28,  -89,  67,  -89,  38,  -5,  -52,  52,  -90,  -65,  75,  -22,  -10,  75,  -24,  27,  22,  -48,  10,  -37,  -76,  -42,  -28,  102,  61,  80,  100,  -8,  -88,  -61,  -106,  -81,  85,  36,  -89,  -72,  -38,  -95,  17,  -6,  -20,  -69,  -79,  104,  -8,  -4,  -41,  11,  -13,  -18,  -13,  16,  64,  25,  78,  9,  54,  9,  101,  -12,  -3,  99,  -41,  -37,  -52,  80,  -95,  71,  53,  -102,  -41,  100,  -67,  -63,  -81,  -15,  11,  -101,  17,  91,  90,  -16,  34,  -19,  55,  14,  -81,  -12,  -35,  44,  7,  -80,  63,  -20,  37,  -33,  -78,  67,  102,  -43,  53,  9,  -19,  114,  -25,  -73,  107,  -102,  117,  -64,  66,  62,  73,  -5,  -55,  21,  58,  51,  73,  -62,  73,  -79,  -78,  31,  -32,  90,  -95,  7,  -34,  72,  -17,  -22,  -5,  59,  76,  92,  37,  35,  24,  3,  78,  -51,  -53,  108,  106,  -78,  -82,  82,  -10,  71,  98,  -2,  66,  5,  33,  -91,  -25,  -61,  -8,  -26,  34,  41,  -56,  -38,  -32,  -37,  48,  44,  -4,  70,  -108,  -22,  -11,  -1,  52,  87,  30,  83,  47,  -26,  -110,  85,  41,  -79,  76,  23,  -42,  51,  89,  -106,  -88,  -55,  -27,  40,  -67,  -33,  11,  34,  -72,  -59,  -15,  80,  -65,  13,  11,  5,  -43,  53,  40,  -90,  -19,  -97,  -99,  -20,  89,  -93,  -58,  59,  29,  -17,  -35,  103,  39,  65,  -18,  -12,  -14,  -77,  27,  -26,  -62,  80,  -76,  -54,  -36,  52,  59,  -71,  -76,  -3,  51,  -8,  -81,  83,  -40,  -7,  -67,  -9,  61,  -101,  -112,  -60,  -39,  61,  103,  -4,  89,  67,  -43,  -52,  44,  88,  30,  -85,  75,  -50,  109,  38,  80,  8,  35,  -54,  -100,  78,  -86,  -64,  18,  -23,  -38,  76,  4,  94,  26,  -33,  34,  -45,  6,  74,  16,  -43,  -88,  -11,  -35,  34,  -94,  8,  -72,  -19,  24,  1,  35,  -8,  -101,  -23,  -31,  -69,  67,  31,  0,  -65,  -49,  14,  22,  89,  -33,  53,  28,  12,  -68,  83,  -32,  91,  -106,  10,  67,  54,  -21,  -84,  -76,  86,  80,  40,  18,  -68,  -6,  29,  42,  27,  16,  53,  57,  -5,  -54,  19,  15,  71,  42,  1,  -44,  -69,  81,  -16,  26,  7,  105,  -69,  86,  12,  -89,  55,  -91,  25,  -43,  110,  -43,  92,  -57,  -46,  45,  73,  -88,  54,  22,  -19,  49,  33,  67,  -35,  -31,  2,  -119,  -98,  -49,  60,  11,  -40,  12,  -55,  -44,  -83,  -28,  -19,  -5,  118,  35,  -53,  -4,  -70,  -29,  -77,  35,  67,  -11,  48,  -33,  38,  41,  -7,  49,  48,  -41,  100,  -90,  38,  71,  -110,  74,  12,  1,  -98,  34,  -37,  -26,  -33,  -19,  -14,  -64,  -8,  -80,  -69,  39,  -43,  64,  71,  -11,  71,  -76,  60,  7,  -2,  -15,  27,  -41,  66,  -12,  -63,  -50,  -19,  61,  85,  -73,  -76,  96,  87,  87,  -5,  37,  -13,  -79,  -75,  -9,  2,  29,  -9,  100,  15,  71,  -96,  110,  -74,  51,  50,  -58,  -53,  -90,  -90,  11,  39,  72,  88,  78,  61,  -53,  -40,  -43,  -20,  108,  -98,  13,  -16,  -63,  43,  -91,  -32,  25,  -23,  -46,  47,  41,  83,  -106,  -94,  26,  -45,  57,  20,  90,  22,  57,  -63,  -3,  -43,  -16,  18,  -82,  78,  -55,  57,  -24,  -65,  36,  106,  75,  -29,  15,  39,  111,  82,  46,  60,  79,  104,  -49,  -40,  18,  -109,  -5,  -98,  -71,  -89,  -60,  -35,  -120,  20,  -64,  -82,  -74,  10,  -30,  -66,  50,  49,  30,  55,  19,  47,  81,  -113,  -68,  -62,  -24,  65,  18,  -29,  -6,  60,  38,  63,  -90,  20,  19,  -4,  10,  91,  80,  -76,  46,  -90,  43,  -45,  73,  105,  -24,  -54,  -71,  -76,  -38,  -90,  28,  16,  -18,  45,  -33,  -15,  64,  -58,  -84,  -80,  4,  27,  80,  -40,  23,  91,  60,  43,  44,  -55,  -96,  -34,  81,  107,  -44,  -52,  -32,  71,  18,  -66,  65,  45,  -30,  -33,  24,  11,  17,  64,  -68,  39,  1,  48,  -18,  61,  14,  -71,  80,  -19,  12,  -15,  11,  -81,  -19,  -22,  -14,  -96,  37,  -98,  75,  20,  -3,  -35,  -71,  10,  66,  107,  -42,  -93,  -84,  -27,  -79,  -66,  77,  65,  -30,  0,  84,  -49,  -89,  61,  -4,  45,  -79,  10,  -42,  67,  -9,  11,  -84,  65,  14,  38,  50,  -79,  -67,  65,  -47,  -20,  101,  -8,  89,  -101,  92,  6,  52,  104,  -69,  -79,  69,  50,  79,  4,  64,  -81,  82,  40,  23,  29,  79,  60,  -35,  45,  82,  -39,  -12,  -45,  -45,  76,  4,  -53,  -5,  -76,  27,  4,  -70,  36,  83,  -70,  -7,  -59,  -5,  -9,  15,  -37,  -113,  101,  -7,  65,  -36,  -76,  59,  -22,  -29,  94,  17,  111,  8,  -31,  10,  48,  118,  29,  -74,  -49,  -95,  61,  85,  49,  -44,  -77,  14,  -27,  76,  69,  8,  8,  -22,  83,  -23,  88,  26,  -30,  94,  -68,  81,  -40,  10,  -59,  -51,  44,  -71,  -89,  -1,  -54,  71,  90,  -74,  -90,  98,  -84,  50,  -7,  54,  -33,  90,  76,  107,  -34,  -3,  1,  -47,  -85,  -32,  -56,  96,  6,  104,  14,  77,  -45,  -45,  -55,  58,  64,  60,  79,  -40,  1,  -31,  -76,  53,  57,  42,  -35,  26,  -83,  -10,  39,  14,  49,  -67,  41,  -58,  78,  -5,  18,  -3,  82,  -88,  -10,  57,  84,  -70,  -32,  -26,  95,  90,  66,  103,  22,  -68,  30,  9,  -72,  -23,  27,  75,  47,  -14,  -23,  -31,  -56,  -96,  24,  -93,  -76,  67,  -87,  43,  78,  14,  -47,  27,  -89,  62,  64,  99,  -10,  28,  -46,  75,  -7,  -65,  -85,  -12,  -12,  -1,  -72,  -93,  93,  -93,  -51,  -74,  68,  -4,  8,  -41,  -77,  87,  20,  4,  70,  81,  -13,  -72,  27,  10,  -20,  61,  -66,  -44,  15,  -18,  70,  81,  -64,  94,  -74,  -62,  59,  36,  8,  94,  59,  99,  -81,  -10,  -8,  13,  84,  77,  21,  -30,  -64,  -50,  -11,  -62,  -84,  -42,  -89,  16,  -32,  31,  20,  -40,  -85,  -75,  -51,  -16,  -100,  -4,  -102,  77,  -8,  -104,  -14,  -47,  4,  -7,  -45,  -58,  -39,  20,  75,  -20,  -10,  59,  19,  1,  24,  35,  -30,  -65,  -63,  -117,  -65,  -30,  22,  -47,  -108,  -68,  -73,  -102,  -64,  -88,  49,  48,  -13,  6,  25,  -48,  -96,  -8,  26,  -55,  98,  -38,  90,  78,  60,  -13,  47,  50,  59,  -19,  84,  2,  -34,  68,  29,  33,  -104,  47,  -53,  -100,  -88,  4,  -111,  -43,  67,  -19,  66,  -32,  -12,  -84,  20,  53,  -73,  25,  87,  1,  -76,  -57,  33,  48,  82,  80,  38,  -2,  -8,  -51,  -29,  -1,  30,  -75,  -34,  -89,  -17,  -82,  10,  -48,  -7,  13,  -68,  11,  58,  84,  -54,  -37,  34,  102,  88,  -55,  77,  81,  123,  -65,  92,  -49,  -32,  53,  43,  -88,  32,  -82,  -88,  32,  -39,  95,  50,  -36,  86,  48,  54,  -29,  53,  -10,  30,  -67,  36,  -41,  1,  60,  60,  -84,  -67,  51,  28,  74,  23,  38,  69,  -100,  2,  -89,  -64,  44,  69,  93,  52,  37,  -65,  24,  31,  53,  -3,  -33,  -21,  33,  91,  45,  -100,  -15,  -87,  47,  -22,  -18,  -26,  -54,  39,  -18,  51,  -16,  -91,  48,  23,  -22,  -10,  -51,  -98,  -42,  11,  13,  -30,  -36,  -8,  -10,  -109,  50,  -69,  60,  -90,  -88,  -55,  -5,  -77,  75,  -2,  -13,  -68,  -63,  66,  18,  -70,  66,  72,  105,  -46,  24,  47,  43,  -30,  -28,  54,  0,  -60,  68,  -40,  62,  63,  22,  -12,  75,  47,  29,  42,  -13,  37,  -20,  -14,  107,  -66,  9,  -34,  -34,  71,  65,  33,  -78,  7,  61,  18,  21,  -41,  -5,  -65,  99,  -14,  -45,  -40,  49,  29,  -13,  -9,  -40,  99,  72,  53,  35,  -35,  105,  40,  -111,  -62,  -79,  -74,  10,  10,  39,  -79,  37,  -17,  -99,  57,  -81,  87,  -47,  -10,  19,  -48,  -61,  -51,  -45,  79,  -62,  88,  55,  -48,  -84,  -3,  50,  53,  89,  -49,  42,  56,  -50,  71,  -7,  -74,  29,  8,  -16,  -16,  -38,  -42,  -40,  75,  29,  -91,  -6,  -77,  19,  -6,  -82,  41,  48,  49,  44,  58,  98,  -7,  -19,  27,  -56,  -43,  -36,  87,  71,  25,  60,  -108,  66,  25,  48,  -64,  -67,  49,  58,  14,  -47,  -32,  4,  83,  -61,  -82,  5,  -88,  57,  -46,  -37,  -81,  -71,  -14,  52,  -53,  72,  18,  55,  -20,  31,  90,  35,  -18,  54,  77,  79,  -96,  94,  -93,  -68,  73,  59,  19,  0,  71,  -93,  8,  -16,  -87,  7,  -88,  75,  28,  -53,  -48,  -32,  14,  25,  32,  -12,  21,  34,  -5,  -90,  94,  30,  77,  84,  -113,  37,  -78,  20,  -14,  -67,  80,  -89,  99,  70,  110,  -18,  -90,  25,  51,  36,  -56,  -23,  66,  22,  67,  -21,  26,  55,  -38,  -88,  39,  -45,  50,  -64,  -94,  -12,  -100,  62,  22,  47,  100,  48,  -43,  -5,  28,  34,  -36,  94,  8,  -11,  74,  -51,  -53,  12,  -11,  -93,  -55,  45,  -74,  20,  -94,  -26,  -37,  -14,  47,  -3,  -17,  54,  -94,  -104,  -4,  86,  49,  -1,  -51,  79,  99,  42,  7,  90,  -6,  -46,  69,  -34,  6,  -24,  -50,  -26,  -37,  73,  -83,  83,  -113,  -4,  -66,  66,  99,  -11,  50,  43,  -91,  -15,  23,  21,  50,  -20,  17,  25,  76,  -82,  -15,  75,  -20,  75,  -48,  80,  30,  88,  54,  -77,  -26,  44,  -30,  -79,  -37,  -81,  83,  -30,  91,  -87,  109,  52,  -56,  54,  -73,  94,  -60,  69,  -81,  -6,  -73,  -3,  -1,  -91,  86,  104,  29,  60,  93,  -46,  34,  89,  -88,  54,  -81,  28,  -54,  -97,  83,  -79,  45,  25,  18,  -71,  30,  -45,  15,  -8,  15,  -29,  -95,  9,  -88,  -40,  24,  -95,  -75,  69,  -18,  -58,  -25,  38,  92,  -8,  -66,  -22,  -56,  -68,  46,  -70,  -37,  6,  -74,  -15,  -52,  -72,  -23,  -3,  -51,  -3,  -55,  16,  21,  22,  -107,  39,  41,  -29,  -8,  44,  -53,  -24,  49,  19,  39,  43,  -75,  -4,  8,  -29,  67,  -84,  53,  88,  -102,  -8,  -8,  -88,  26,  60,  93,  54,  66,  -5,  44,  -12,  12,  -37,  -77,  -53,  -79,  91,  -28,  -73,  -14,  -80,  -8,  2,  -49,  78,  12,  96,  -22,  13,  58,  82,  -68,  -29,  -46,  67,  11,  -72,  89,  25,  -15,  2,  -113,  83,  94,  11,  25,  60,  -43,  51,  40,  93,  -74,  27,  25,  -23,  -60,  -60,  -25,  -78,  -90,  -10,  -54,  11,  46,  -42,  -63,  -63,  -69,  15,  31,  75,  -25,  3,  59,  38,  -16,  -41,  83,  -44,  40,  48,  -69,  -69,  -34,  26,  -40,  35,  -110,  82,  44,  36,  -26,  -45,  -69,  -16,  50,  -60,  98,  -1,  20,  -17,  6,  -30,  -46,  -93,  -55,  -78,  42,  92,  101,  -50,  37,  0,  118,  -40,  -53,  127,  -81,  108,  9,  -79,  -7,  -18,  93,  -72,  9,  32,  107,  -79,  -82,  -13,  14,  -20,  -62,  -112,  -81,  -6,  -60,  -6,  -48,  -3,  61,  -66,  -30,  95,  53,  -38,  -18,  -20,  -57,  -73,  -20,  -51,  64,  -91,  -30,  -66,  33,  -76,  79,  -10,  50,  77,  97,  -102,  17,  -64,  13,  -25,  33,  73,  34,  -100,  -99,  91,  -7,  41,  15,  98,  67,  14,  -55,  93,  -74,  -37,  2,  84,  41,  -44,  -19,  90,  -98,  69,  16,  25,  63,  -6,  53,  -86,  -6,  -68,  -36,  -21,  90,  74,  -38,  49,  67,  -6,  39,  91,  62,  46,  11,  44,  -54,  57,  -13,  24,  52,  -9,  -60,  -19,  34,  89,  48,  -67,  -106,  43,  26,  8,  -71,  -18,  69,  5,  -70,  109,  75,  46,  -100,  15,  -10,  -56,  91,  -29,  -57,  10,  29,  100,  -40,  93,  -57,  -96,  -73,  94,  54,  68,  -68,  17,  -22,  -62,  14,  75,  -80,  -81,  -70,  42,  -25,  99,  60,  88,  13,  -61,  5,  3,  -20,  108,  -98,  15,  -52,  -17,  -78,  68,  -17,  34,  67,  60,  -67,  33,  43,  0,  -112,  -87,  -70,  20,  83,  104,  -33,  113,  -38,  59,  51,  -58,  -75,  -86,  96,  60,  20,  23,  12,  71,  55,  -73,  -73,  75,  -49,  1,  2,  25,  56,  45,  78,  27,  14,  36,  -19,  15,  -68,  93,  69,  -26,  -56,  -34,  21,  -57,  -33,  -69,  22,  69,  -81,  -52,  6,  10,  -14,  -73,  -54,  -58,  7,  31,  85,  -27,  -48,  65,  -71,  -72,  10,  33,  82,  10,  -2,  -35,  33,  20,  -98,  4,  2,  15,  -13,  -81,  47,  -81,  -49,  -9,  10,  -47,  -9,  -42,  29,  56,  76,  75,  -76,  -50,  -57,  1,  113,  90,  -46,  -70,  57,  -68,  -12,  33,  -55,  56,  -93,  15,  62,  3,  45,  -80,  -54,  -73,  -21,  6,  33,  28,  -13,  -11,  36,  24,  39,  35,  26,  -69,  108,  111,  -14,  -86,  44,  -78,  57,  -81,  -37,  108,  -77,  4,  6,  -49,  -59,  -83,  7,  -96,  93,  -107,  -47,  43,  45,  -54,  58,  32,  40,  -89,  75,  -44,  111,  -43,  -1,  -83,  22,  -40,  -94,  -122,  28,  26,  -31,  -40,  -48,  62,  -101,  14,  -95,  -42,  66,  13,  3,  21,  29,  -103,  -48,  -57,  -3,  -60,  -99,  -44,  -106,  20,  78,  26,  85,  -26,  57,  -110,  -85,  60,  31,  4,  -2,  50,  20,  -34,  106,  -13,  21,  -80,  47,  -17,  24,  -13,  4,  -63,  -85,  -23,  74,  -72,  -14,  -27,  -18,  -50,  42,  -76,  -85,  44,  77,  -83,  88,  20,  64,  -66,  12,  -59,  54,  -114,  19,  85,  24,  106,  -64,  -66,  -29,  77,  -14,  8,  -80,  10,  40,  -29,  -23,  -13,  -59,  23,  -88,  43,  -44,  -64,  72,  -20,  80,  -59,  -13,  -45,  -91,  82,  -51,  47,  -74,  -31,  -37,  -1,  5,  105,  88,  -85,  -71,  -54,  -40,  -44,  -95,  -55,  -88,  83,  60,  -24,  -30,  33,  -25,  39,  0,  -47,  15,  49,  75,  23,  -25,  0,  10,  -63,  -40,  -73,  55,  7,  -94,  -48,  -61,  -96,  96,  -32,  -31,  -54,  -3,  8,  -66,  -33,  99,  -39,  83,  114,  -98,  -79,  -39,  -19,  -43,  -16,  80,  27,  42,  -42,  59,  28,  40,  95,  -82,  13,  72,  -36,  -8,  -38,  -75,  11,  -70,  -21,  76,  -91,  -4,  -50,  5,  44,  -48,  -94,  -23,  -27,  -89,  19,  -38,  27,  9,  -39,  -7,  11,  -51,  -18,  -3,  -75,  -42,  82,  39,  -14,  38,  -92,  -11,  41,  -56,  78,  -3,  -7,  -77,  -52,  -49,  55,  -103,  61,  36,  61,  92,  -90,  59,  18,  -73,  85,  32,  -1,  -92,  85,  -69,  -75,  -53,  39,  55,  11,  36,  4,  67,  -10,  102,  -46,  106,  57,  37,  58,  -12,  -26,  -31,  -54,  64,  -46,  -71,  -84,  97,  109,  -101,  78,  -18,  20,  -69,  44,  -71,  99,  -18,  -85,  80,  -80,  67,  -23,  39,  -28,  91,  99,  -32,  -17,  -64,  45,  -76,  47,  -24,  -77,  88,  103,  -103,  16,  -99,  86,  72,  35,  -76,  51,  81,  -7,  -85,  -67,  -21,  -26,  -69,  83,  56,  -71,  -2,  -69,  -66,  83,  25,  115,  66,  15,  42,  13,  64,  25,  -38,  39,  -97,  36,  -2,  -71,  54,  -89,  15,  72,  -83,  -15,  62,  49,  -1,  -10,  92,  59,  -62,  -46,  -24,  76,  16,  -51,  9,  78,  63,  51,  42,  -80,  63,  95,  -100,  -48,  -76,  34,  105,  -105,  -14,  -22,  91,  24,  -96,  30,  -59,  -69,  -13,  -73,  57,  66,  69,  18,  -36,  -1,  -42,  18,  103,  42,  -40,  -63,  13,  -80,  -40,  14,  52,  -13,  -91,  92,  -66,  11,  70,  60,  -97,  -78,  64,  7,  -70,  -88,  -74,  -44,  72,  56,  -88,  -9,  2,  -47,  105,  -43,  79,  60,  80,  -33,  -31,  63,  36,  70,  -48,  -5,  11,  -59,  103,  -4,  69,  -81,  -98,  45,  -5,  -93,  107,  -27,  -57,  10,  -75,  57,  83,  -18,  73,  -86,  -2,  -81,  -83,  -40,  56,  -58,  -36,  47,  63,  -99,  59,  -86,  70,  -68,  -48,  0,  -81,  -43,  -22,  -24,  100,  -21,  -66,  -74,  -49,  96,  75,  -12,  117,  -105,  85,  -41,  -34,  112,  78,  58,  92,  -44,  77,  8,  6,  97,  22,  -60,  90,  -26,  86,  -78,  -14,  59,  62,  43,  -77,  -13,  -56,  -11,  -76,  -81,  -52,  16,  65,  -13,  76,  0,  91,  -81,  -47,  -72,  -42,  82,  -56,  4,  -70,  66,  -21,  1,  -71,  26,  17,  -5,  -16,  76,  43,  -35,  -78,  7,  102,  -32,  -58,  100,  93,  100,  33,  75,  56,  22,  -107,  -86,  59,  25,  -66,  -10,  -4,  44,  78,  -63,  -53,  38,  -98,  -61,  -87,  -38,  58,  87,  -26,  -26,  -50,  -24,  53,  52,  23,  -20,  -3,  74,  -36,  -39,  13,  33,  -15,  -89,  -87,  12,  0,  -85,  88,  -43,  40,  43,  -79,  -16,  66,  -85,  -82,  -57,  -23,  -25,  51,  -48,  -22,  -12,  86,  -84,  -47,  -21,  64,  77,  -102,  -76,  65,  61,  109,  49,  -40,  -34,  37,  -1,  71,  65,  -71,  70,  63,  -3,  -27,  -70,  -39,  82,  -26,  85,  -53,  -16,  -21,  -78,  16,  -90,  34,  1,  -73,  -103,  99,  1,  32,  -45,  -66,  -16,  -106,  -22,  84,  -67,  -73,  -9,  5,  -72,  46,  23,  29,  14,  -28,  53,  76,  -18,  -27,  80,  -30,  43,  -88,  100,  -78,  -83,  -38,  -6,  -60,  -75,  -23,  -16,  28,  39,  -57,  59,  34,  33,  -43,  78,  63,  56,  58,  -21,  85,  60,  -10,  -22,  -21,  53,  88,  -80,  67,  65,  10,  105,  -3,  26,  -8,  -4,  -6,  74,  -51,  -89,  81,  -54,  -25,  46,  2,  43,  -22,  77,  -53,  30,  -58,  46,  38,  -72,  -81,  91,  -60,  69,  44,  102,  -108,  -97,  0,  -71,  -46,  -37,  43,  57,  48,  -20,  -102,  -56,  -81,  -96,  61,  -54,  25,  88,  -23,  -90,  -7,  9,  -21,  -52,  -35,  -59,  -22,  55,  75,  106,  60,  -52,  -40,  77,  -44,  -28,  -76,  57,  37,  -26,  -85,  16,  -83,  -18,  44,  -41,  -111,  -55,  38,  -86,  64,  56,  80,  20,  12,  -77,  95,  30,  23,  -69,  38,  19,  84,  -90,  98,  -70,  43,  37,  -60,  26,  -88,  40,  21,  96,  120,  122,  -67,  105,  59,  99,  52,  3,  -75,  -72,  75,  51,  34,  -12,  -94,  58,  -5,  30,  12,  -12,  -50,  44,  27,  12,  -86,  -2,  -23,  2,  25,  55,  41,  -19,  68,  71,  -28,  -71,  -60,  27,  -12,  -8,  -60,  94,  51,  76,  -32,  11,  -50,  -99,  20,  6,  105,  10,  -13,  -57,  -19,  -7,  100,  -25,  21,  74,  -34,  -40,  -14,  64,  16,  60,  34,  -15,  -88,  -92,  95,  -7,  -48,  -90,  -25,  -13,  -48,  -35,  109,  22,  47,  23,  15,  31,  -11,  -17,  30,  -72,  -27,  18,  106,  50,  2,  -56,  85,  105,  -9,  35,  86,  -80,  0,  33,  -61,  -76,  21,  54,  -3,  49,  11,  86,  -82,  45,  31,  105,  -67,  -58,  43,  104,  86,  -72,  -67,  29,  48,  54,  79,  8,  -34,  -18,  -2,  -44,  91,  45,  -117,  -32,  -77,  90,  47,  -28,  -76,  -66,  -12,  -87,  -6,  34,  -6,  -76,  -56,  -85,  -56,  11,  36,  14,  -84,  -47,  37,  66,  59,  -76,  83,  48,  29,  18,  -83,  64,  78,  -6,  -95,  -90,  44,  -82,  43,  91,  -91,  -78,  68,  -55,  -41,  70,  -90,  -25,  101,  -73,  39,  12,  -53,  -91,  -78,  14,  82,  70,  -16,  77,  34,  -60,  97,  -28,  -75,  -76,  17,  26,  -62,  67,  45,  23,  -6,  -72,  -112,  -31,  37,  7,  -34,  45,  60,  -58,  -3,  33,  91,  3,  -68,  -96,  -28,  91,  -89,  -36,  -92,  -5,  -16,  35,  -76,  76,  71,  -43,  -72,  40,  64,  50,  -9,  -80,  9,  26,  72,  39,  -46,  105,  26,  -20,  -30,  64,  -16,  54,  -87,  -35,  -62,  -76,  33,  -59,  0,  -37,  14,  96,  -12,  24,  -72,  -2,  -58,  -37,  -55,  -22,  81,  32,  -58,  65,  76,  4,  -45,  -49,  -106,  -93,  -43,  -97,  4,  56,  -106,  -66,  -24,  -88,  -61,  -57,  10,  20,  21,  40,  -9,  -59,  35,  4,  93,  -2,  93,  43,  105,  -61,  8,  -79,  24,  -38,  47,  96,  37,  -31,  -78,  10,  -52,  27,  -26,  -40,  34,  -41,  93,  -99,  104,  -28,  14,  -31,  -76,  -24,  -105,  -104,  -72,  41,  87,  -68,  -22,  -48,  34,  -43,  -6,  -57,  44,  76,  -12,  72,  -81,  -75,  -4,  34,  104,  -48,  -43,  -92,  48,  -80,  -12,  -61,  -97,  -54,  -79,  65,  67,  88,  16,  -12,  -63,  89,  46,  59,  27,  -23,  102,  64,  -28,  -78,  85,  -32,  -4,  61,  45,  58,  -6,  -32,  78,  2,  26,  -6,  72,  81,  88,  84,  90,  -78,  95,  26,  -65,  26,  -55,  11,  57,  93,  36,  -92,  -56,  -65,  80,  -38,  37,  23,  -7,  29,  46,  -32,  25,  17,  -29,  57,  -25,  11,  91,  -51,  9,  4,  12,  -74,  52,  -18,  -98,  -78,  -9,  -58,  28,  55,  105,  -67,  -81,  -29,  -27,  -20,  -13,  -67,  -95,  72,  -67,  108,  -33,  -90,  76,  55,  15,  -115,  -59,  51,  -13,  -31,  -101,  72,  -90,  0,  -34,  78,  -42,  -23,  -5,  70,  0,  31,  36,  -32,  -98,  -1,  103,  44,  -75,  -91,  -83,  43,  -8,  14,  -88,  -18,  71,  16,  -88,  46,  -7,  93,  15,  55,  -54,  77,  73,  -59,  -51,  -44,  76,  89,  36,  51,  2,  -121,  6,  44,  88,  -51,  53,  43,  -95,  93,  -24,  -14,  42,  82,  -18,  -74,  -51,  35,  -21,  108,  87,  10,  31,  18,  29,  -78,  88,  100,  -47,  61,  73,  -37,  53,  -50,  -40,  31,  64,  -60,  10,  -79,  -9,  75,  8,  -72,  -92,  101,  -39,  6,  -3,  81,  21,  78,  -90,  91,  17,  22,  84,  81,  -72,  81,  -47,  -26,  -61,  23,  89,  -26,  3,  36,  -27,  67,  26,  -18,  -92,  -78,  46,  14,  -76,  87,  42,  -1,  -82,  -25,  -77,  -57,  91,  53,  -34,  -8,  48,  -44,  -34,  36,  90,  -16,  -35,  -16,  17,  115,  86,  16,  -1,  -76,  60,  76,  89,  -79,  -78,  27,  -108,  -83,  66,  -27,  -93,  81,  -39,  -49,  70,  5,  22,  30,  74,  -54,  38,  58,  24,  12,  50,  2,  -115,  89,  -111,  11,  -6,  45,  -50,  87,  -71,  -79,  -2,  69,  -5,  -69,  -79,  -92,  33,  -26,  -58,  -91,  51,  79,  -15,  -37,  -14,  88,  115,  -69,  -87,  -62,  60,  63,  47,  -11,  7,  -61,  13,  40,  29,  49,  -84,  -72,  39,  86,  -70,  106,  75,  105,  -54,  53,  59,  44,  -83,  -45,  -100,  -29,  63,  -79,  -82,  51,  -63,  32,  -46,  -4,  -6,  -31,  -77,  50,  -69,  45,  -21,  17,  68,  60,  8,  -30,  -78,  16,  -74,  -91,  -97,  17,  45,  -61,  99,  49,  -67,  63,  -34,  -75,  36,  68,  23,  13,  -26,  68,  61,  -50,  71,  -12,  -98,  35,  -5,  78,  -45,  38,  -87,  -77,  94,  -8,  -87,  -47,  26,  -9,  35,  58,  88,  85,  -48,  -59,  46,  -50,  -1,  49,  27,  99,  72,  38,  28,  6,  -101,  -64,  -52,  -35,  -68,  75,  -39,  -51,  -5,  -25,  -89,  109,  4,  -30,  -39,  63,  -26,  69,  -41,  34,  80,  81,  18,  11,  -5,  32,  -71,  -25,  -86,  -59,  -75,  87,  96,  14,  -50,  -54,  32,  -30,  -84,  -47,  24,  -21,  -15,  -109,  26,  22,  91,  57,  3,  -72,  55,  -29,  39,  -10,  -25,  51,  -9,  -23,  -76,  8,  -49,  67,  82,  -98,  -44,  -37,  67,  103,  -28,  47,  -67,  107,  -1,  -42,  56,  -26,  55,  -48,  -73,  -61,  91,  -64,  -20,  36,  -35,  10,  49,  -38,  6,  -61,  -34,  -2,  -88,  -96,  -19,  6,  -3,  -70,  -86,  -24,  -45,  28,  -53,  -78,  100,  71,  36,  -98,  89,  68,  -60,  84,  -103,  -80,  57,  57,  -54,  40,  -98,  36,  -60,  10,  -63,  85,  -17,  84,  -15,  -92,  -18,  82,  80,  82,  -93,  -85,  -18,  -98,  43,  45,  -33,  15,  -9,  -67,  -71,  -33,  41,  -45,  -33,  -81,  -64,  41,  41,  -20,  -93,  -40,  -18,  -45,  43,  8,  87,  103,  -97,  12,  -10,  106,  -69,  -26,  -29,  62,  22,  22,  37,  -40,  5,  -37,  -67,  -65,  61,  -62,  -75,  65,  -6,  52,  60,  -113,  -57,  62,  87,  -39,  93,  30,  73,  78,  14,  -86,  58,  -12,  -48,  -95,  -15,  67,  22,  36,  -75,  -87,  108,  18,  105,  85,  -87,  -51,  -20,  82,  -8,  -65,  -48,  -6,  -64,  11,  -68,  21,  -29,  29,  -46,  -52,  85,  21,  21,  7,  52,  -49,  53,  99,  -33,  -39,  -4,  -32,  -52,  -22,  30,  92,  -63,  -21,  32,  -77,  -66,  -45,  -23,  122,  -1,  -73,  -14,  -21,  -98,  73,  -30,  -25,  -80,  18,  -77,  53,  -98,  108,  -92,  25,  -37,  41,  93,  -70,  -12,  -65,  -77,  -78,  -61,  -32,  73,  -87,  -105,  46,  -72,  -72,  63,  72,  93,  66,  17,  -22,  12,  -59,  -39,  -95,  16,  102,  -73,  57,  79,  -86,  -28,  18,  -39,  -54,  17,  46,  -44,  77,  6,  -30,  -25,  -22,  85,  62,  46,  -75,  -5,  -49,  51,  -89,  -53,  -51,  -5,  -64,  90,  -15,  -95,  -8,  -10,  -38,  -89,  -37,  -4,  -23,  8,  -81,  -89,  23,  29,  -12,  100,  60,  9,  -22,  -76,  11,  30,  -47,  -23,  -11,  27,  -5,  49,  -24,  -105,  81,  -87,  98,  -65,  -24,  43,  13,  -86,  99,  -11,  -75,  -15,  54,  -49,  2,  -48,  61,  -103,  -17,  50,  10,  -40,  72,  -12,  93,  43,  -2,  90,  -6,  20,  -36,  -83,  -23,  36,  -93,  88,  -38,  -87,  1,  15,  12,  65,  -62,  -47,  -78,  -74,  -38,  20,  7,  59,  85,  -70,  -65,  44,  0,  60,  18,  118,  112,  49,  55,  -27,  55,  80,  -36,  -43,  -52,  60,  90,  -62,  -55,  0,  109,  -78,  99,  64,  -57,  94,  -18,  -37,  -60,  34,  67,  -21,  69,  -103,  -75,  -40,  -69,  -82,  -82,  -73,  47,  0,  -69,  30,  -78,  -76,  76,  -93,  35,  -5,  -44,  -47,  -39,  12,  74,  -104,  -83,  -61,  35,  94,  -61,  17,  23,  -4,  55,  58,  -78,  40,  33,  88,  -16,  100,  -63,  -83,  -23,  -99,  2,  92,  23,  -77,  -64,  34,  -85,  -34,  43,  -48,  9,  -41,  -21,  -54,  42,  -10,  18,  11,  28,  -60,  2,  70,  104,  54,  33,  -55,  21,  14,  12,  89,  21,  -49,  14,  -31,  19,  -69,  106,  56,  -89,  -28,  -5,  60,  89,  -43,  -4,  20,  -17,  -25,  93,  42,  42,  -20,  -62,  -63,  39,  40,  -78,  81,  -59,  -5,  89,  26,  -64,  -58,  21,  49,  69,  85,  -46,  -23,  55,  -30,  -60,  59,  -61,  73,  95,  -2,  10,  42,  -80,  -44,  104,  -44,  14,  -20,  20,  -83,  51,  -14,  71,  -71,  62,  49,  -102,  -45,  -94,  -48,  69,  60,  104,  -28,  -32,  -56,  -92,  9,  39,  -38,  38,  -9,  21,  49,  3,  79,  100,  104,  62,  -56,  -29,  37,  -88,  -42,  -24,  -95,  -88,  -47,  -6,  -43,  -50,  66,  -2,  46,  3,  -85,  76,  31,  -68,  65,  -16,  -110,  80,  70,  77,  44,  -86,  -86,  62,  96,  -57,  13,  87,  -16,  -68,  61,  -17,  80,  35,  89,  -14,  -98,  47,  -27,  -22,  -83,  -4,  -6,  84,  -21,  -66,  -51,  15,  -58,  -5,  87,  48,  56,  -64,  81,  -27,  1,  -70,  -111,  12,  17,  -114,  -36,  24,  -18,  5,  -44,  -7,  32,  -45,  -83,  -39,  -36,  30,  41,  -33,  71,  31,  -51,  -5,  -40,  -113,  -91,  0,  -4,  111,  87,  83,  -53,  1,  -33,  -101,  -6,  -86,  73,  -22,  -59,  -41,  53,  21,  62,  -53,  82,  -72,  -66,  94,  -21,  79,  -22,  70,  17,  76,  -88,  8,  -20,  -71,  -34,  -47,  -14,  -9,  -74,  89,  42,  110,  99,  -14,  -23,  -83,  57,  -50,  -88,  -20,  -68,  59,  -33,  -7,  -89,  67,  61,  -77,  -29,  49,  82,  23,  -59,  14,  -49,  -28,  27,  -63,  -27,  37,  50,  15,  50,  31,  -75,  79,  21,  42,  -95,  58,  -55,  -9,  1,  -44,  8,  -27,  -10,  19,  -103,  -64,  106,  5,  -7,  -63,  69,  53,  6,  -37,  73,  14,  72,  -29,  -9,  -15,  51,  -13,  -46,  3,  -70,  60,  40,  -68,  116,  84,  -86,  11,  -76,  -87,  88,  72,  56,  -13,  41,  104,  53,  67,  60,  99,  50,  -23,  6,  -108,  -5,  -15,  35,  68,  -82,  59,  -38,  46,  64,  24,  -79,  87,  24,  0,  64,  -5,  36,  24,  -73,  -28,  -59,  -48,  -15,  -29,  47,  -45,  -49,  -8,  64,  -6,  61,  76,  82,  -11,  -67,  2,  5,  50,  -56,  -71,  16,  -27,  -6,  2,  -72,  108,  43,  -81,  50,  -10,  91,  -26,  -104,  8,  79,  85,  -44,  1,  68,  75,  -7,  37,  -17,  71,  -87,  56,  54,  80,  51,  -12,  -67,  -62,  68,  29,  -94,  36,  57,  86,  -23,  -39,  -42,  93,  -29,  2,  -19,  53,  -52,  95,  -36,  93,  12,  40,  -28,  -82,  75,  -81,  -99,  33,  4,  93,  7,  3,  -40,  90,  -55,  85,  59,  -53,  91,  83,  -4,  74,  -3,  -18,  9,  -89,  -8,  -111,  -22,  -73,  -87,  68,  34,  55,  -9,  16,  -97,  -5,  29,  -60,  86,  2,  -67,  96,  -66,  87,  -53,  -92,  40,  87,  5,  -39,  -9,  -63,  -83,  -24,  -11,  97,  -44,  -48,  -27,  -84,  73,  13,  -87,  -88,  47,  -41,  37,  76,  -14,  -27,  -64,  -49,  22,  44,  -7,  21,  -2,  -74,  -16,  -1,  9,  -39,  -78,  -91,  101,  11,  91,  63,  -19,  -43,  -64,  5,  -58,  -57,  -48,  -35,  104,  -57,  14,  8,  61,  49,  -27,  -73,  -92,  -42,  110,  -19,  -62,  -77,  -14,  78,  79,  -8,  -30,  -117,  -63,  -50,  13,  -53,  29,  106,  23,  -22,  -24,  -1,  -36,  72,  65,  -68,  -8,  99,  14,  -86,  -74,  17,  62,  103,  64,  -49,  -62,  24,  75,  38,  89,  9,  50,  -14,  -17,  -29,  -34,  -9,  -42,  -40,  68,  -44,  -34,  -37,  100,  6,  -95,  2,  87,  101,  -107,  -21,  50,  -42,  75,  31,  -59,  8,  -81,  -61,  70,  29,  51,  72,  -5,  -71,  37,  28,  -23,  100,  };

const int32_t data_StatefulPartitionedCall_sequential_dense_MatMul_bias_0 [ 10 ] = {  -2072,  -3433,  1712,  -1968,  1690,  1800,  -1736,  2112,  -2440,  1729,  };
